{"input_size": 84, "hidden_size": 30, "output_size": 1, "hidden_weights": [[0.0717080655572605, -0.14444222998267042, -0.10105910096210124, 0.36834300828811817, -0.433191111450126, -0.37454918581254193, -0.4717210333024172, 0.4058967512184486, 0.13308292504597963, 0.08764965363069677, 0.20331705882299178, 0.38864786008207264, 0.1354457790220891, 0.44424735443409313, -0.2740110739812539, -0.4223962393477244, 0.3553604650273058, -0.056275457654589855, -0.40181297281621187, -0.08816963853083293, 0.2766092988732298, -0.3334050692098144, -0.21791070361767717, -0.12599691610410002, -0.02994056961182545, -0.4599322116843395, -0.287742861141975, -0.24826931387140538, -0.3876648691558382, -0.46925730101262353], [-0.05535818084886124, -0.10730406295260486, -0.052340945245548665, -0.4084554673115768, -0.42121925290632256, -0.1136199880292108, 0.24368285326476202, 0.34011654248163903, 0.06052806346798201, 0.1454731415027648, 0.013725585050175071, 0.1652560154890702, 0.16216639168032065, 0.08412555594252769, 0.2533802375262618, -0.4118107888858499, 0.12365457323557383, -0.3801744680717084, -0.4996186027577132, -0.3149003900218589, 0.2623182455262708, 0.20254054164377944, 0.23282483416374755, 0.27355164760648687, 0.29317566156659336, -0.05385262189280393, -0.029572121627171932, 0.26229863355609184, -0.2638187775044626, -0.21063127830970396], [-0.4590682037656655, 0.42789419082448915, -0.149065556334885, 0.13314174308650464, -0.14240587041870345, 0.41871336374895785, 0.021148721434425272, 0.0243147909239418, 0.10143050122359697, 0.49613750199435036, 0.10995515224252018, 0.446725004781215, -0.4440235376181706, -0.05300951552774308, 0.23454548233183053, -0.4075988185278538, -0.038321145341798556, -0.44290671381784963, -0.3712470041034969, -0.259430752499317, -0.09813590869992858, 0.0723770977409722, -0.1545889687694929, -0.1759269630069993, -0.4315530722676141, -0.1749595247245622, 0.11269028597298222, -0.025574868909195775, -0.12708828077716353, 0.40152737646475445], [0.06225853284149391, -0.0290533098219425, -0.30516996657624434, -0.18964257845451132, 0.3661072862153952, 0.48225023241945, 0.30797145111317253, 0.2694398004234353, -0.004938009528064289, -0.3336848237349805, 0.3445169008824101, 0.4297831282395146, -0.40676201833551723, 0.15796309318825733, 0.0500367104301797, -0.44975001828982175, -0.4769131818740769, -0.20067891910122043, -0.18277466048091082, -0.47580964189221164, 0.19272239659551116, -0.030554790887618432, 0.30342688739943413, -0.39745178669939957, -0.2766978246532442, -0.03342823608689533, -0.35219445201421, -0.23567151562092037, 0.025965640788263328, 0.15715547965824694], [0.38777017378522616, -0.14589694360481292, -0.3943470157079848, 0.07040456710309512, -0.14623994453176764, 0.46670608003474984, -0.3805954754155646, 0.36075935696123185, 0.2141831251215788, -0.3689079283450302, 0.30833114412220264, 0.31974813030086646, -0.2887605016298261, -0.29316735625124296, -0.1413440892853955, -0.3622736350094956, -0.38336002080845616, 0.16319549976991243, -0.40979172840342465, 0.4838854541613843, 0.4503631165413631, 0.09218181034504119, 0.20078479353929427, -0.382211986670621, 0.016507391670571848, 0.481290698521806, 0.03380035713364804, -0.46428543519879634, -0.1824874755454122, 0.19648753106165026], [-0.2061292241468511, -0.4001678962372078, 0.4487846300943968, -0.012637783975705627, -0.0023792194218610614, -0.17395584454727545, 0.10675693600042548, 0.19096816208365383, 0.055660272851131135, -0.19435033582100622, 0.1955761952049336, -0.2060806111156818, -0.07799040350771731, 0.2917975132216129, 0.280953170232408, 0.0791963612134279, 0.3172081242111958, -0.2716223035942888, 0.34898347613233727, -0.34055911313319387, -0.40281659015139476, 0.2011275528290147, -0.3262381338712716, -0.17852523870377995, 0.17507149902417482, 0.18024555551778082, -0.40358003225715167, 0.13091273780986648, -0.3696141240021202, -0.44832468821779775], [-0.19120397302526343, 0.37473304630546167, -0.03481377069232735, -0.22180224426078646, 0.08898408878819762, -0.364757696395182, 0.3099848607319632, 0.011055173434580028, -0.4347503942718867, -0.4322713688802093, 0.4252979178143693, -0.4881374341122184, -0.15617695959557923, -0.2514394294585112, -0.29146969574225673, -0.16130571700756943, -0.10785058012446912, 0.13246499282525093, 0.33617118141222896, -0.11361843718779566, 0.08531981069848234, -0.17123983796830408, -0.38105401149149065, 0.29982843544820326, -0.08848387753736027, 0.431993228175797, 0.4197442755806507, 0.2112616070876197, 0.2674084659834727, 0.279959109717558], [0.36375050040370943, -0.3570024736460559, -0.39152126731947523, 0.4802930659246683, 0.05265694787870224, 0.38169352862525097, -0.186175481479393, -0.38072944554054267, 0.3258710206946213, 0.27626236988482417, 0.4510011833127513, -0.41978711856936535, -0.1263523380313168, 0.11002813179662477, 0.10993861378745416, -0.15241686197914545, 0.3483774174374463, 0.05215991892612051, -0.24393280831308836, -0.3283813266154701, -0.25715709640917933, 0.3270813286376636, 0.3497058141248466, -0.4542697760371463, 0.4348242036791221, -0.11355830747426571, 0.15773930001703684, -0.44263417108615294, -0.037771874501750125, 0.2939042362439067], [-0.07075623998158342, 0.13793731763084413, -0.4659764438520215, -0.4143289166695568, 0.08840128108370983, 0.16285984130432898, -0.34396785708164296, -0.2777994922653396, 0.14803651822037822, -0.23854545898872048, 0.010998693929270584, 0.08862713837039421, 0.17157993659718038, -0.13231475634667103, 0.22537584688962048, -0.16227633093625018, -0.37588393785435864, 0.13779621227794245, 0.4120106823007862, -0.12664614893302453, -0.07457463982626247, 0.08649029730837121, 0.3032537025908636, 0.051983155173431064, -0.3417662895302959, 0.3647438346094884, 0.48150485843750057, 0.39828817367494435, -0.19966968542569388, 0.1922076240549832], [-0.03281458651331685, -0.2655451438476229, -0.32845181992326994, -0.168446955325208, -0.48628097345958393, 0.21175580631395435, 0.22443288414080056, -0.19581711504474242, 0.4129998148261155, 0.19518049655190356, -0.3186939552855533, 0.14071791611085943, 0.49266062753831175, 0.2477972765531233, -0.37749156552827984, -0.4036251613403441, 0.20000191864702196, -0.2652054432756485, -0.2144784502554891, 0.11660200993532574, -0.38144683015879166, -0.45770167134452633, 0.17966424365680944, 0.26664354852301175, -0.4405981576650541, 0.09782270369096623, -0.05401105129943343, -0.0782940291684148, 0.07476492142154738, 0.4486170393035862], [0.22179904471462641, 0.15166920970944575, -0.4282642935320766, -0.2401284756301828, 0.3336470406595078, 0.11599650700905417, -0.44887691358137183, 0.2623146678570478, 0.49140574740482124, 0.037359665388944086, 0.13896303084812456, -0.393192592927083, -0.037128040964915066, -0.09598227408631, 0.05184683505919374, 0.34487927973669474, 0.3191953670661999, -0.0015873056472962555, -0.2832938637850023, 0.3399564906105954, 0.19694911680174332, 0.11925916030388073, 0.12912948420378867, -0.34137601921754335, -0.45216662573000865, 0.19942270691994912, -0.24240093645931216, -0.2650813953179585, -0.47201963905019984, 0.349157927731944], [0.40244034973880227, -0.004375500672200709, 0.2708549259526614, 0.27016915410754966, 0.07622973331738837, 0.2666499729947271, 0.46502777770049303, -0.10991892253221511, 0.49365450836661195, 0.3567422998103421, -0.3477779771990366, 0.15102028407920837, -0.2864931172117022, -0.1685961467280937, 0.4092182261835825, 0.06537401976775575, -0.21956717694157774, 0.1896815704571818, 0.10860946164874823, -0.005563696829872526, -0.4406944817290555, -0.4005386098533743, -0.43921411440094216, -0.3369134136672517, 0.3221271184562576, -0.32143719829105744, 0.29238959260961905, 0.4579079817141139, -0.11477954773397255, -0.22830287398177956], [0.48394406309858384, -0.2551352009686664, -0.03923943921118511, -0.3914333301708727, 0.2471515739050968, -0.2980694022980396, -0.235128737499675, -0.4765612311517686, -0.2953090789785935, 0.4606846643223077, 0.4106371393276633, 0.32633595842428975, 0.21406649125857535, 0.44474724002496757, -0.4510963831308257, 0.23563634468039107, 0.02547697282874617, -0.1390920348399599, 0.015165332321622427, 0.10479946707406773, 0.14081176831937114, 0.04262849825274384, 0.2986042784570403, 0.47141604679229077, -0.22632575808947553, -0.42925002780006705, 0.25374506817879505, -0.20155248032850015, -0.39736146494267444, 0.25727025145317306], [0.2572717635302166, -0.2389575533267699, 0.20670747562913522, -0.4767113855019913, 0.2263947789534267, -0.2636588834765416, -0.025778438586144675, 0.2295070829464959, -0.3458710928447234, -0.06428036211024188, -0.04336997857529314, 0.3483541681136455, -0.18460178715670936, 0.22500263212957874, 0.19875249286895633, -0.03678392012862813, 0.28834666051922336, 0.3797075330837364, -0.18097317697284232, 0.213795370455751, 0.041035634977397574, -0.27574959362814894, -0.17377157613133537, -0.076227199108624, -0.26832187219007936, 0.06936997724889972, 0.28577145703065115, -0.2780336125108391, -0.34275827131860787, 0.3241944422803807], [-0.15842087985060882, -0.39729393947778924, 0.28262785139597457, -0.40873411020963857, 0.0518609425969615, -0.07587728649410463, -0.23181195879887562, 0.49872514630978004, -0.04556811575409436, 0.054131033899798564, -0.486090735752985, -0.1285328918218015, -0.2534599792965718, 0.4898884105172052, 0.04237604664482064, 0.20992784586150748, 0.05685505314409267, -0.06025359524109897, -0.053166755851485115, -0.2154436717844379, 0.27739195205580547, -0.3835345893691816, -0.11724467306918507, 0.21634690479414664, -0.11609774725248956, -0.34503581160282226, 0.007849413539657402, -0.3645471483334949, 0.07428220238302408, -0.19371759060753158], [-0.45885459411410884, 0.09355405532288658, -0.20053267739197703, -0.4396515122119374, -0.2808119818517086, 0.11029555979678786, 0.310561574037642, -0.246974250348833, -0.3631981018754714, 0.33732298751741335, -0.06692741337028997, -0.13986791261157025, 0.46677254669699353, 0.11584552975150655, -0.13562219438209308, -0.30547624867215184, 0.011948680046227957, -0.11408738141996541, -0.3121125324067148, -0.37938772285573075, -0.2712143330402213, -0.30110432563585304, 0.3336025204023889, 0.47950580463402126, -0.38595256558048907, -0.47584190990571557, 0.03148189844196714, 0.37594930145294375, 0.36783064739424565, 0.24190113170183072], [-0.4706077471434667, 0.3050494265644336, 0.08934581795371131, -0.06033657364058606, -0.07582630457220484, 0.12731914062062913, 0.29997657896255686, 0.07028764807543678, 0.43647924897369367, -0.3061994186585604, 0.2182269433168168, -0.2548117873480785, 0.16285553841021647, -0.44932366566992077, -0.3638780170745027, 0.410331413513577, -0.23842057487373627, 0.10780181169506513, -0.4976707858776887, 0.4844715772700937, -0.38272031014396873, 0.08362482211923056, -0.31547443725847674, 0.38961849733087506, 0.06606017743122793, 0.48432604838662824, -0.24070738788391574, -0.23485544374708933, 0.13103879274405938, -0.014418317213175616], [0.37822439949222775, -0.009634032140761008, -0.4553148066422459, -0.13739030654216353, 0.18265005583035307, -0.21771608218215843, -0.33599163785156044, 0.3614822505062787, 0.14577022896973388, -0.12997512128333835, 0.19900337576015628, 0.43298894705621443, 0.15024945533495632, 0.14866239985969715, 0.4162103101198539, -0.39621210217514236, -0.19360185069438823, 0.006642453806847379, 0.10741249492932048, -0.23376387872386428, 0.2609977439629706, 0.25426586255595535, -0.448059408466515, 0.24268693945339176, 0.44371291504341004, -0.12921140100522702, -0.49329735542963504, -0.20143223953831318, -0.3481223418926096, -0.405306368847676], [-0.4177582242772352, -0.10442884997410093, -0.14726830293877607, 0.16018916633007646, 0.143110829444244, 0.4054894625828577, -0.15314579540375942, -0.3782654406233945, 0.19938748968493045, -0.29846123875842007, -0.10468148413385919, 0.13600522738938015, 0.008960524890486373, -0.40183383507622933, -0.04868819098860578, -0.04845394175478288, 0.435819054716785, 0.26769001799055747, 0.4613648797943939, 0.12038807989692055, 0.2752811864397479, 0.4456544868413796, 0.2599283944831994, -0.3713562722364784, -0.046496027509594355, 0.04272314750235892, 0.394450494698943, 0.2236263457175568, -0.3041116522847954, 0.10753454220921534], [0.1982625870835718, -0.08614098382161778, -0.2074053342641313, 0.25144947194293965, -0.3690085404497179, -0.11933496262039991, 0.3694740013382387, 0.1776991879973211, -0.4975994501137796, 0.1836617738173707, -0.03930237533117725, -0.009849448385700994, -0.3245431266599777, -0.07408775974985415, -0.21030289167587607, -0.3473305063771401, 0.1128994130114787, 0.3519168090077254, 0.021878322529022488, -0.13697538775495158, -0.38184961402418555, -0.24275824899978116, -0.0729826840608733, -0.05358560865981426, 0.061282343055119086, -0.2620650297074321, 0.16253151975350513, -0.3058542637888533, 0.38846495395518527, 0.16692333399710296], [0.026617722122085474, -0.054738278972132355, 0.12866580843019831, -0.08284774151333518, 0.29164624427277863, -0.3197198423444022, -0.35742153522680603, 0.479220612050015, 0.08819516270258033, -0.48876624149344783, -0.23545957791430094, 0.03872816412289242, -0.021456781635104887, 0.10284158879648159, -0.1265659448486454, 0.2026348490170868, 0.3332214998721407, -0.27030074138694377, 0.421430403314977, -0.029615862885223, 0.02333574355937225, -0.404635179800333, 0.15210332996781142, -0.19359666384031002, 0.03776058109449915, -0.21378686398187507, 0.41022140937898555, -0.40292057828635275, -0.042029393269326025, -0.30550724156544745], [0.42380593839848457, 0.23749470179621257, -0.1369007569754933, 0.19479640732854675, 0.4904037332310472, 0.0660795886691234, 0.37042819257937354, -0.15555544158546986, -0.428214344895865, -0.4931197035404611, 0.38883851864478847, -0.11464184017582074, -0.08504626560558623, 0.4372425908685401, -0.4763172068920043, 0.22267313930950564, -0.391050031057361, 0.004442205535483141, 0.2943010326966225, 0.060478324689416926, 0.03904796326637878, 0.12272974312948211, -0.29742605476397427, -0.2713302023400742, -0.23161440979271966, 0.19275720224654624, 0.26130414941162006, 0.3765508339459156, -0.0676594998482697, 0.44690796284029627], [-0.4357516056560382, 0.3260045596666941, 0.2226436596473067, 0.33079151107289256, -0.03785506736765893, 0.02238004604584634, -0.17548313005920016, 0.37490355048134566, 0.041712966573950155, 0.10988984561317756, -0.13801580290036702, 0.20696924038762474, 0.4211576430818287, 0.047026910752264006, 0.4072047068819787, -0.38275460653449467, 0.3220496271836918, -0.017020426767645983, -0.21380189447302983, -0.05748336292604076, 0.337835434022688, 0.38565691847966094, -0.31037046022844217, -0.4561454381677509, -0.40084395428703495, -0.18132347250565936, -0.2121292994740901, -0.20471515047283112, 0.12494700317641265, 0.44860753599637126], [-0.2943403912928985, -0.15379664186542133, 0.2261634664707004, 0.4541721711975489, -0.2590878396011548, -0.22961605062929266, -0.029121001282114003, 0.16797545480786955, -0.40477704687310817, 0.3984676167360864, -0.38256691948824756, -0.47193604363879116, 0.31034412622763907, 0.09791916737315613, -0.08564816052483328, -0.4259864486442027, -0.11532962591683284, -0.4730209498584308, 0.20881995769226933, -0.44534826549585327, 0.20390647750928806, -0.03344109735605701, -0.017627521276951465, -0.35488333060880156, 0.2780651129063864, 0.042168440931673046, -0.03325404215431179, -0.19453586902699563, -0.24409180388924054, -0.2265568467330961], [0.1193622517639834, 0.2138039575743551, 0.19216471498627252, -0.09912782246318064, -0.32367021725109424, 0.4495525732299539, 0.12886231846250362, 0.30471723162201403, -0.30870504814713073, -0.4151079496882508, -0.42523019645762294, -0.4913034603109572, -0.39464506828128787, -0.17202739398839795, -0.3306194451663347, 0.15265345006081055, 0.4480220042657642, -0.4851141853442118, 0.08040108283585767, 0.008444902863716575, -0.10291950901649416, -0.12103761906993205, -0.09279136356493622, 0.2675607326320498, -0.3000427999253623, 0.2030537676391473, 0.295656653267349, -0.44490291891563316, -0.4024952171584243, -0.024619956966206447], [-0.049521287552687504, -0.27729630697529684, -0.4599325062646527, 0.4967140418929578, -0.32515063386898246, 0.02334689932653479, 0.34332143989726444, 0.04800781937447581, 0.43639023075014777, 0.23983247296286359, -0.2631116234274581, 0.4807931257698515, -0.006018145943105364, -0.25282249036329885, 0.2742746387782599, 0.45309969480021056, 0.14534851594148085, 0.00841287938537123, 0.15029668603469484, 0.18024626053817755, -0.18967848705603746, -0.4601563735718326, -0.47675157539860613, -0.05941461027132011, 0.357328285161963, -0.22895647175548134, 0.10635553466163154, 0.3594379752942452, -0.26715315783942695, -0.47232377444953894], [0.26887230683951807, 0.38949960878775836, 0.37726215688989845, 0.24866326870076902, -0.026003601360666814, -0.4342921176215739, 0.3445722168960416, -0.3158267969921993, -0.5173899423997567, -0.23866289174142039, 0.0597144905773929, 0.432210234515322, 0.2646341866269646, 0.39278345322219177, 0.507232380774717, 0.13468168995616592, -0.06820530752038877, -0.000320824313860065, 0.5077144734026399, 0.10015706055496627, 0.06231485359131135, -0.1741173306614433, -0.202303896043621, -0.11116351048417533, 0.03609296039666738, 0.0189978979667924, -0.36333243479425636, 0.08160391324833752, 0.1887140499314032, 0.11815077967299151], [-0.44416509103308827, -0.27110293874569014, -0.07217402288937405, -0.4864004431342681, 0.09817415041300799, 0.07006056035407911, 0.4134803843551952, -0.19669257959014994, -0.07436946786396012, 0.39474971679679777, 0.10272315361282024, 0.037571197576787785, -0.4811409521623452, -0.23847360341679338, 0.031206531452718726, 0.02211363747549503, -0.2684543550026831, -0.3009768617789578, 0.06834044555717234, 0.4935184785611569, -0.3191760231462911, 0.04344250017103176, -0.31362096720274385, 0.47116000118791324, 0.27487829660112695, -0.3611381265433355, 0.30001858610672755, 0.4738198712206708, 0.3195117111403107, 0.1189822301682791], [0.16352534894390758, -0.2336449689539827, -0.11225052267922625, 0.4661368117403654, 0.3877569296001799, 0.3781355263987956, 0.44959687380521873, 0.24677322571344226, 0.28044300118230386, -0.30159784624098707, 0.4958301677944387, 0.08337772859519887, 0.36807997010976806, -0.18028195174998915, 0.07213617744943734, 0.15468892903461207, -0.14798206385190238, -0.12858217720565493, -0.45410959295424347, -0.19607178537966333, -0.39533657136891753, -0.2556074106048577, 0.3738731685929658, -0.29374606240016143, -0.19005177036635412, -0.3206857596554862, -0.41900956019228597, -0.15619905182748137, -0.32924608087773655, -0.21739664249508947], [0.479101095440262, 0.3406764915468545, 0.01188509459807469, -0.4207648982175608, -0.17881967392961667, 0.20054678167436, -0.10510286930852734, 0.47535929748007966, -0.40306166429580104, -0.2533856328105334, -0.1655449899344518, -0.24537134344711625, -0.3107605083030733, 0.4478009110859485, -0.3473669321051027, -0.20836425802110314, 0.06709147414983951, 0.062161490977382605, 0.26786313630221115, 0.16320626615460446, 0.27613096694636996, -0.027049439269414468, -0.19207633382052236, 0.21645877735118027, -0.0895888941334212, 0.39294398819888354, -0.47518355299457493, 0.00926740262008347, 0.4018404019361913, 0.3718932381807242], [0.4519943011026784, 0.16772564077324945, 0.258431217681118, 0.3931114360730863, 0.1372412871367727, -0.14211723814888436, 0.08681550754532723, -0.11125026539739968, -0.47952706524978056, -0.36392434357380093, 0.17150252392609236, 0.3576396224995074, -0.10276418571121225, -0.20295417646233357, -0.3945358755435323, 0.19412423983440757, 0.04504080422787831, 0.3976998700083744, -0.1262797974333937, -0.012503442307829456, -0.30761368414527485, 0.48514346533910957, 0.10453894607382788, 0.011490517432170208, 0.28689377043087116, -0.23246395964668853, 0.31659629902067976, 0.14438679706396632, 0.4600689500430941, 0.1782140020862624], [0.367461056392839, 0.03160647001795026, 0.053595714523799645, 0.3860439047612526, 0.09664315710574259, -0.31514142813298557, 0.48641360388200255, -0.3658167159404019, 0.16644609687928522, -0.1624065673158674, 0.19486129913110062, -0.25849035255939784, 0.29818660052034834, -0.37552525006503185, 0.2515394829592894, -0.3220118721564789, -0.2643919745539856, 0.0959606186192711, -0.4451519909331448, -0.44111891172198636, -0.4317770998444883, 0.2849313665974042, 0.4209031707343013, 0.06603717905707632, -0.005266822574131048, -0.31007079473219834, 0.3082276670496812, -0.1153070302262768, 0.27144717260007156, 0.3014429565630366], [-0.32157832273665, 0.30728348626519614, 0.3525476505627483, 0.42431288762395847, 0.09215925244279509, -0.06375685578896285, 0.2980335080634403, 0.1697896694427795, 0.12720778232045546, -0.4415604806960317, -0.43955983921494746, -0.29294387587065984, 0.027357642654450887, 0.22456371155925897, 0.33466237225793266, 0.3313983460946472, 0.3019170364330134, 0.18418128690625094, -0.1994466561219688, -0.118414881932434, -0.05454287338612386, 0.3099735174616055, 0.48346772553141465, -0.06964922766905825, -0.20132927981126988, -0.03681590946959125, -0.4328807980873619, -0.15995175690879304, -0.4617673558463286, -0.19652396225539887], [-0.465193494728896, -0.14172335099007813, 0.0016364541934247982, 0.44414540080064896, -0.44284210594075446, -0.08134717310055545, 0.06811824676154139, -0.043340305064217065, 0.06902447497901328, 0.08671498304647658, -0.40656788606806593, 0.362331172875918, 0.3526917023638699, 0.03360669932009408, -0.11991067732216981, -0.050866246999643885, 0.4533378157627687, 0.002908460822973554, 0.4947670158582879, -0.09218330127157401, 0.02844439238473224, 0.48052895676657376, 0.03526428587268568, -0.47321018841994705, 0.2763112627488973, -0.22308221749265425, -0.40467676133232566, -0.35987774140056256, -0.08518469009194332, -0.361611677438999], [-0.2719979730332152, -0.2322091043297836, -0.4100397644881862, -0.01804841661555136, -0.28574707609697353, 0.3384030843628388, -0.0009039915567446386, -0.04200527611424564, -0.24321704212612305, -0.031874781853104016, -0.09402626181409997, 0.11155070972338477, -0.195934935445352, -0.2819734883134362, 0.293103098028934, 0.167970229956963, -0.20881296112705544, 0.21051832838755002, -0.42408450938885717, 0.2576812734411044, 0.060500733449282695, 0.15290322589237526, 0.16761042185818767, -0.4198129674259762, 0.22317610176255165, -0.01685197236398946, -0.4152675174123929, 0.06524222160052692, 0.28910930836917254, 0.43589097041815167], [0.23848868370763301, 0.12870011925532474, 0.47423969193382093, -0.12198371293081108, -0.48506119266597814, -0.1757530844297416, -0.10977111759779085, -0.2756830453481613, 0.39042713323032996, -0.13097390929233269, 0.22175466845162692, 0.32682255306992153, -0.08302049109409136, -0.14388319622255372, -0.13456871379777663, 0.10459205555087683, 0.10249032486742427, -0.40251676133273023, -0.4552298594912201, 0.14786699996517805, 0.1896369169181721, 0.15874489305062875, 0.06561469251555908, 0.008593425045348655, 0.11244908403437737, -0.3819246221546208, -0.2862406340076659, -0.08612766173456346, -0.17536956381047875, 0.11367702232748234], [-0.42970492183519277, 0.28002861809349316, 0.04996985202434505, 0.3291649771345116, -0.0327149152789465, 0.05219118565886536, 0.46331497626038604, -0.282701679333256, 0.30688333127583134, 0.3248820095092181, -0.10055606950991003, -0.05233446103810907, 0.1563031078486751, -0.49153095139126884, -0.06826745746414044, -0.4941186623425593, -0.30188158161971324, -0.4382034742870726, 0.4098331524682745, 0.0890397639962832, 0.03270514656317015, -0.004018791066234968, -0.08396002631069001, -0.041646237930264354, 0.4833538301093749, -0.11546751229847003, 0.36680703218244415, -0.4012614434504458, -0.21665567779439832, 0.04806318821706853], [-0.2652259984098212, -0.027034517350571444, -0.18768147138669297, -0.39591550542606563, -0.37706465350910257, -0.25877161800379606, 0.4419742264309999, -0.2325254070335846, -0.05000641519108617, -0.14855302889650027, -0.26420138383371156, 0.22141364684256493, 0.37084841908909916, -0.32070097529816577, -0.06610134290808489, 0.11900445059499379, 0.42281941078359336, -0.33201612538339287, -0.3279314469700667, 0.20108630233211014, -0.2279783261471743, 0.35282709820619274, -0.15144100171232974, 0.49649891204315433, 0.09196181661251937, -0.32061867234370506, -0.3109377524580668, -0.10553952031997393, 0.14363134196028224, -0.10466747188899053], [0.37014555236532204, 0.15082341272283453, 0.3760989570023531, -0.5093589794034286, 0.301168849678419, 0.4250293114093128, -0.06175742350342853, -0.11414380683542528, 0.07774833333419243, -0.13727553769129827, 0.49752282549977983, 0.11936346317951899, 0.1966796314301983, -0.21318189158431125, 0.14132326076059232, -0.3524316846978708, 0.03828868705860338, -0.2936277092384037, -0.43077040387571575, 0.048198117546064984, 0.057889191169705576, -0.504554612027938, -0.16463569495677696, 0.19157754366234744, -0.3945315632612779, 0.14466527169370538, 0.0015026785166358807, -0.04409474607368448, -0.13506445739835726, 0.3550245067199782], [-0.24449346260454727, 0.31581863462574666, -0.1728952946676068, -0.13543421359663366, -0.26328925898264927, 0.08636624228582451, -0.24455060999460076, 0.32544745289676197, 0.18939651642425573, 0.16106424082095802, -0.08006042160356727, -0.35533792843551587, -0.06259444566182938, -0.46201068483178503, -0.10836124197031245, -0.29588443514849583, -0.2947015125834288, 0.28709568481544867, 0.4669376977899459, 0.3537558954847476, -0.3556620972582704, -0.4236767954998684, 0.3346078409506496, -0.13083075689907855, -0.36961512290019094, 0.2552468960195882, -0.20497168608339697, 0.14436255657969327, 0.023591588877522142, 0.3700772842665424], [-0.4798719113449018, 0.19878830656858193, -0.5593564806420741, 0.14814147630145058, 0.33914556950561064, -0.0018507130368882133, -0.08921084725827312, 0.33350417462217813, 0.5010495874755776, 0.11984966431489126, 0.10884886775862032, -0.56483913981867, 0.01573710105036672, -0.5241167469067246, 0.17971917331686965, 0.27370623338223954, 0.5496339843016654, 0.03862373833839905, -0.5107564389753927, 0.27343190460925754, -0.4895245864787984, -0.5322320259397676, -0.44571071553593644, -0.034426913221178725, 0.017543760808807055, -0.430331039574795, 0.14929564186636882, -0.41234155137721645, 0.02922136453376555, 0.33816192932021466], [-0.4756960961734358, 0.201853797890968, -0.30459848172573684, -0.5064778927529218, -0.40173059952827755, 0.14193254126415175, 0.2022577723298047, -0.06487009315036642, -0.3693501416880413, -0.07673977906595612, 0.005261772311023393, 0.00386798601134766, -0.3604715660278154, -0.5503740759282365, 0.05546983833582489, 0.3913329587615234, 0.2797118917863769, 0.18500518071315805, 0.37445947611994096, 0.13602539137882444, -0.2852208362217927, 0.45033532543446664, -0.09637510384391458, -0.4385915169508831, 0.45924623687547583, -0.5562515805460168, 0.4369905117570836, 0.04495540053584112, -0.47796743671543246, -0.3372369141601587], [-0.39363818717668336, 0.2077074548538486, -0.13164949597666964, 0.22653117272910134, -0.30112812395106126, 0.4478534337189075, 0.3812247812699772, -0.15396173523876375, 0.3785876791372058, -0.1636290061487532, 0.4639305039189774, -0.18060236432372478, -0.29252108164586255, -0.0691535726992931, 0.3715178493087356, -0.36255824927802943, -0.03861097408094545, 0.204551031321634, 0.04647990567802264, -0.16445780516738537, -0.1588334373393582, -0.24921351387691723, 0.27319399124949106, 0.36351512810771336, -0.4381491483886334, 0.2185763424489354, -0.27976863273151414, -0.1735641706037935, -0.5007479096924264, -0.21542892976033653], [0.3786241474780994, -0.1419587072909877, -0.08725378556352767, -0.07892091133267312, -0.03137728638192905, -0.5071673161530103, -0.3441725549542095, -0.2618850786659031, -0.41745708252055097, -0.4122413042295542, -0.2609891234359988, 0.41721525296870354, -0.1256784783188832, -0.41841804402254285, 0.2565482758896673, -0.11014510924125304, -0.23460998611662934, -0.3158004227173414, 0.22092852471579325, -0.2894214718996717, -0.2681430341843652, 0.10474337356312849, 0.2431375415787844, -0.09140438570881687, -0.1806983629513065, 0.16507907365683488, -0.17063723107596898, -0.02999345392330769, 0.3478563535626265, 0.1330509455350386], [-0.019592652881197475, -0.3252146598832477, -0.07708001638553845, 0.26398002216659205, 0.4322102135184983, -0.058982213736711135, 0.09478822070994526, 0.24756951849302497, -0.08329990766005499, -0.3807917290863553, 0.18359051826828032, 0.06453848778960777, 0.3924608278798775, -0.15229117200310194, -0.4096093186760629, -0.07275299189631174, 0.02376866542827811, 0.20498272763718736, -0.24112155975064503, -0.4865298159647208, 0.3008343290501073, 0.14417720734584494, 0.044801156391476075, -0.4076553624050695, 0.2596610167150786, 0.21687138331724093, 0.3930535319139293, 0.34639289348694957, 0.42612513009817193, 0.11566313415713395], [0.11969517481362976, -0.49558426759776536, -0.0038111974957027255, 0.03578182474702485, -0.21105567544270792, -0.47173416735928086, 0.34504906771054655, -0.21570997459743999, -0.18963210008656123, 0.45821764828603717, -0.29345441578521536, -0.1036859717200948, 0.37122566663487044, 0.33138660430195527, -0.32403212438891527, 0.31028816010831045, 0.14982455975991865, -0.2686943017253958, 0.22643435241657617, 0.4245018588626985, -0.31494335654464545, -0.24631379211579305, -0.47920822061659496, -0.10898794372086154, 0.4406854239196107, -0.3567593444969358, 0.5155431632357208, 0.10766722135842594, 0.18515310425241435, -0.013727462837744241], [0.223049419701953, -0.10389949856841792, 0.2695640838644924, -0.23323490800432245, 0.36721108569996386, 0.23126694593672348, 0.26178051170268424, 0.4163131574558628, 0.014407101762537927, 0.4074993248652912, 0.11214666183329151, -0.06392094043626059, 0.18045232899118402, 0.07158824889212116, -0.2623682809412537, -0.21316265661178008, 0.14565250204586394, 0.039230171982163324, 0.04532648706192125, -0.1104069636075209, -0.06462169468292274, 0.23005438882053753, -0.12955275444445155, -0.11396316623437708, 0.28944903813003925, -0.25894170449168774, 0.08461071630936426, -0.49498969342405025, -0.1303464904224474, -0.0029686856715206524], [-0.03550355909252513, 0.4584460272977526, -0.35010597819782224, 0.42968103526774115, 0.024256032713995193, -0.43822882484990444, -0.5110394346815211, 0.10563428550573432, 0.3198456320094757, 0.03499458841638331, -0.22773322815672226, 0.15816632198287636, 0.12837878932615066, 0.398639041479593, -0.11404178111536382, -0.25127406015184783, 0.2302760067545325, 0.18240890981155533, 0.45928160352900493, -0.1888895037884243, 0.4425480986770291, 0.45092402251322106, -0.20283454115513125, -0.438763485754213, 0.3660035016560638, -0.501398732576684, 0.4855875032055044, 0.20129344032115515, 0.23478418348341334, 0.1537648702666548], [0.05163509085097656, 0.2737363006358631, -0.5366264618955685, -0.29554311761475976, 0.18068952079758208, -0.3639656379597227, 0.2805598062382996, -0.17025131673622426, -0.17285657570560128, -0.24417301668677363, 0.2914854192812826, 0.4550174380489064, 0.1385612152740044, -0.5174848596218371, 0.4502868147854612, 0.4367070673922663, -0.33144068390321607, 0.12412452525474107, 0.2790194561260837, 0.43486219622414, -0.36426543163760383, 0.21884390985968824, -0.4324208417619218, 0.2875078078098821, 0.42168887756644385, 0.1605089471675097, -0.1668826648714827, -0.3426153842767218, 0.35868962547114713, 0.20733558604087132], [0.05314331333711032, -0.1342317319259499, 0.03178115462971804, -0.48387149958499703, 0.25253391159145905, 0.06124551743892501, 0.32777551922153264, -0.424856414351877, -0.19073908161696765, -0.46871769711424793, 0.24555386187309614, -0.12128011523857984, -0.20198773566346165, -0.4148532004706383, 0.21342448449682422, 0.27005924838656165, 0.16514306122958602, 0.4882833548877588, 0.38570089674082153, 0.0058472034420759215, -0.075374602995231, -0.09832051776192743, 0.451450771475961, 0.28446351993075314, 0.20912064179519335, 0.1122930830812486, 0.18654568791340373, 0.35373508074929194, 0.32395736971355193, -0.24749234549568452], [-0.005538816596674539, 0.4263194115399145, 0.3141446028971646, 0.29463292559119086, 0.25863267462853146, 0.018411057907417233, 0.08330030283339739, 0.4460855864799864, -0.14120661543636812, 0.011865374890510852, -0.44227220816409163, -0.4426615352264211, -0.1061621560120251, -0.015129924591122796, 0.004165456203828522, 0.18851881629147973, 0.417049955886204, 0.3070959253224473, 0.3322393162511391, 0.45435921547360264, 0.4376904157783546, -0.4792193562457083, 0.15874942204792894, 0.09994662277165975, 0.07880936658159104, -0.4302211215159136, 0.43220933239822, -0.2937399829476591, 0.4452836403250565, -0.10660115017529534], [0.4291396688123146, 0.018388324346337893, 0.2121033674306437, 0.4372333630567887, -0.19228060395538762, 0.3085998628537909, -0.15402691221082582, -0.11828398437410767, 0.09795234984577238, -0.3798904658540498, -0.3458240048426138, 0.37177168579978115, 0.22722286482847223, -0.3575822812822429, -0.01949593604141586, -0.01828266040162743, -0.02827452935522606, 0.1909468329674389, -0.2550854239634149, -0.1449449284172907, -0.3066356654586753, -0.21578783829617615, -0.24323864454105779, 0.32372592592893856, 0.27400619413388516, 0.46860076419961627, -0.3675396907265245, -0.14454464828462935, -0.2229647613111097, -0.4367051559521498], [-0.15755099769273676, -0.19510540376907504, 0.3570224621965176, -0.0893571394022949, -0.3552837500885234, 0.017067914906515987, 0.09217107862539353, -0.12813688745608942, 0.43297003401176126, -0.02204397032744004, -0.471383207592484, -0.14925168136126074, 0.13814135916899772, -0.30213420344650826, -0.4102979886683972, -0.4420894181687705, 0.3615435225028427, 0.208375497858582, -0.2647163866509055, -0.32390239624940426, 0.4677245987482972, 0.49228387607185925, 0.4130823776184556, 0.48676011343575504, 0.002742098453447361, -0.03327508368538215, -0.351062907851231, 0.15482229706105088, 0.10182750723201182, 0.10032252695622641], [-0.3786270662896887, -0.2926780268735881, -0.17193918548643597, 0.3357331372360526, -0.22591750114542744, -0.14643708258433072, 0.06654639870156386, 0.2280083949585506, 0.3184041465836464, -0.28020077422088613, -0.4767438404935484, -0.08949582550483842, -0.28978903906361486, -0.36966115412170414, -0.4933385061995807, -0.3287505323411641, -0.18638528417512712, 0.2662397680843523, -0.02526935269436939, 0.20570913470006869, 0.049384564619944275, -0.1032732458884694, -0.03028253209180435, 0.17041845640481118, -0.2658786057071957, 0.2119774366189212, -0.10103821495235048, -0.22263896663597013, 0.2112649446882933, 0.4350559941783647], [0.36291707827795666, 0.07393543501493961, 0.1948673956258263, 0.24376048518320384, 0.43049990293025076, -0.24443045094373445, -0.09532022901664888, -0.42427121026713527, -0.03998270101073524, 0.48036928328231315, -0.32807835064781815, -0.0913711703537274, -0.3721125945217686, 0.27455855356331, 0.28802584575096446, 0.005627966104467352, -0.288006579629747, 0.15616046669457234, -0.2660697959235242, 0.3810425294663194, 0.18453604445701438, -0.45381501947695857, -0.1928159976075287, -0.03489441129605242, -0.48995665510845127, 0.36837354003249284, -0.0232997697423178, -0.39738060684176446, 0.14362096923590278, 0.21578040206621998], [0.08068391241701808, -0.2925966987630045, 0.28138985610435174, 0.11143629513032915, 0.3479479159444764, -0.4012014823792911, -0.5367894415382191, 0.5405120658765024, -0.2629935895818051, -0.10559130517148693, 0.2628928239810491, -0.3343660891716946, 0.04104155745755966, -0.6487200519662805, 0.3026079834535679, 0.20430357121270845, 0.29237802595086804, 0.15992544726107025, 0.14467631772203976, -0.4906921858292244, 0.30789276796970766, -0.25130996951832585, 0.06732061120049085, -0.4533386986385121, 0.47204320317953147, -0.4641997904411857, 0.5793166762857883, -0.2522925529337743, -0.4916780755114269, -2.151185050677155e-06], [0.28587730485615104, -0.07778936631094234, 0.29548115651756346, 0.1675708638317076, -0.3551580399628832, -0.043445399378223934, 0.38274775564169544, 0.5235395922532975, 0.07462769485217256, 0.38478578506345157, -0.43286912340219724, 0.43668251498704747, 0.48817141812833115, 0.2139988603503354, -0.39245945098127094, 0.2479616854277693, -0.023900034934161506, -0.08559858017340351, -0.23266786112349927, 0.029602474314000652, 0.04854968049817353, 0.009745132866800786, 0.20087831394562755, 0.13344864509571605, -0.3053323264425744, 0.30343405392439776, 0.10444100368135502, -0.4753485098577252, 0.21917535297910345, 0.44003044775521094], [0.3721147540648211, 0.17191408786560897, -0.00834981570083598, -0.09893467308909608, 0.11418531259621328, -0.18297878731731032, -0.408448027526772, -0.3777556927569461, -0.28865870018099044, 0.1110959870171637, -0.09223891477351309, 0.4466401975516084, -0.2581479771089426, 0.17797975833211102, -0.11676081442067647, 0.11884360402739173, 0.17504074320191607, 0.09281630350491912, -0.0055861027207526875, 0.21658273360903527, 0.03458322525977202, 0.32823359955174, 0.09807738332724064, 0.36689997266582797, 0.4334507254343019, -0.023962610594207127, 0.23568697042737877, -0.2529578334151066, -0.0692361356785561, -0.4128186035224247], [0.32968133152387075, -0.4281372674637826, 0.3604458720268851, 0.34971812837323174, -0.2647846281735875, 0.34346467763382327, 0.036462977682219885, 0.44686451437692293, -0.1947765059057312, -0.14232667542152017, -0.038137492687885424, 0.16289724956404486, 0.07591783077707043, 0.12450426476250112, 0.3926512663479804, 0.1202020449955372, -0.06708548877266152, -0.1608537967844098, -0.14236346882606554, 0.23860750096407463, -0.30637850537521766, -0.4459089364687284, 0.13933650149646723, -0.26796230046611286, -0.35168993321985925, 0.22597650043414852, -0.15158752982928922, 0.3907354193060867, -0.21127074375700383, -0.20100627417695296], [0.25256149847882003, 0.018679805645351846, -0.011130676594726411, -0.31474608844814866, -0.35984627914851813, 0.03682314863138184, 0.006198100266299604, 0.2676541055744171, -0.440647376073649, -0.3931000127450047, -0.14021986058478905, 0.18986534821589968, -0.08725159156919052, 0.12115512904196235, 0.3702156822447614, -0.4798928804281639, -0.34478490751610275, -0.42201196313715594, 0.4768778905886663, 0.13928886368166787, 0.10672083924081187, -0.3997110879423507, 0.29540178758456154, 0.3051243240639933, -0.4321580289120112, -0.24646218559966238, -0.3068788810885091, 0.3669434801558793, -0.49450622091756535, 0.4635292232290161], [0.2775365605473569, -0.09947371693232403, -0.40476282354338566, -0.05649572926872564, -0.4637126857828418, 0.14437091436599378, -0.26968825017264986, 0.22666547381755636, 0.45621212058233807, -0.3731509612834947, 0.3976146231312978, 0.40907263613038186, -0.12870040452423795, -0.1819789561154244, 0.11839304423154386, -0.4847775253337557, 0.44835151297689135, 0.2927146259032961, 0.2783508746326789, 0.23426609209534774, -0.33414892127187507, -0.4086948972682457, -0.3060680139294494, -0.0891224475179736, -0.06838211247462204, -0.43912336497832294, -0.041130341058638296, -0.4447434721113767, -0.37654176608822776, -0.2541361436450321], [-0.47628927214752054, -0.37006160645641284, -0.18270023503400928, -0.3394674208196733, -0.4924872723492445, -0.499069983951734, -0.2850887373377745, -0.20328909848874732, -0.2442693935205892, -0.3018328437662876, 0.4659705671900644, -0.22747681752299667, 0.41498124110124, -0.15843764574842295, -0.3893974615767711, -0.07056910087210658, 0.06515775082859503, 0.4069130476732598, -0.41492134422486404, 0.40799992147156905, -0.3364377553705126, -0.07028705989761828, 0.03136623886367267, 0.08076042652240129, -0.445821076452893, -0.502041310181909, -0.43676803720917523, -0.3769508174560378, -0.06675321012306475, 0.24557699311323467], [0.267742561821451, 0.04676677544525666, 0.04255062454223575, -0.37366782015353334, 0.043962046741832836, 0.4531203984623642, -0.3145666185282547, 0.3942820775336628, -0.30813635955700247, 0.23409722605137104, -0.43474066498577846, 0.2491989339701623, -0.02550211294338905, -0.007498096475616736, -0.05655017943986437, -0.14103641082447316, 0.527101144222014, 0.2662765019642539, -0.1761646608809434, 0.35932964160431563, 0.46586112542610975, 0.39650933383541664, -0.2147372322845193, -0.018998338535461422, 0.3306965873194542, 0.22135259981986108, -0.4029404921050097, 0.307368003422774, 0.4110557354049152, -0.5024187404754713], [-0.05379882153601697, 0.25348226121636336, -0.17176151113126797, 0.3643101898053476, -0.36912903766599303, 0.3501412450488897, 0.08714302639889372, -0.46281243079537626, 0.19846792026757892, -0.05270199310036308, -0.1075631399808997, -0.16813934548237905, -0.2985076178427624, 0.4362663105615802, 0.4290663832813488, -0.3744752536208807, 0.4618419076777207, -0.24186512713049785, -0.19333824859635862, 0.0031662329043135643, -0.04856234119181404, -0.3525992780866807, -0.4705521307455073, -0.09431949281384908, -0.3542624031700587, 0.4289988217126897, 0.45604653774017345, 0.24821841312986534, -0.19656673712439424, -0.19184539955728952], [-0.4227663183586884, 0.22877212063795088, -0.470024656164538, 0.1323406948342882, -0.3331463715686095, -0.07455227483090124, 0.0174509113000418, -0.4097063995753315, -0.16678403383678106, -0.28444256560006465, 0.06112517326292001, -0.39413690515781014, -0.14748501175684214, -0.4558033722523673, -0.056374990185590786, 0.1000885175149917, -0.34333972666746204, -0.40241553178812517, 0.3683013563913406, -0.425788220023681, 0.2925290140694626, -0.05686012731674668, -0.18995253596020736, 0.47467251158825446, 0.26215577430499964, -0.49336808709665364, 0.010086735896612402, 0.2838587682728981, -0.24635057735473445, 0.12518214998158916], [0.016571501402752285, 0.15100558650975163, -0.028839886036889913, -0.49949322155205816, 0.07430140060232719, -0.5138648105336795, -0.31871389218115304, -0.002482738815355808, -0.0496834852193959, 0.4286338873857972, -0.357639360317979, -0.3131278431816835, -0.33491135825621093, -0.033276238546455957, -0.07152608968612847, 0.2118888616851557, 0.16697702298081554, 0.47603825224170354, 0.12496151692208236, -0.18968848274102995, -0.25258391732357927, 0.2717936584931309, 0.29212163339282315, 0.15389365491038334, 0.08914432740003127, -0.048932778150980176, -0.1003521242615824, 0.2604182670590178, -0.45087963209092996, -0.2674723431978361], [0.2899563988997886, 0.1507201272411429, -0.1331245440989159, -0.3538608717793389, 0.08038965642480071, -0.2679704995517576, 0.31331283208914545, 0.16773956113028135, 0.17434654154437626, -0.3019374969826483, 0.17268487838227342, -0.024645554473517423, -0.176221112087085, 0.4034690560096172, 0.2669113940800106, 0.19664446979649564, 0.20806199651171287, 0.4804773651439959, 0.35026611183599204, 0.03982900881729792, -0.39281277892632716, -0.4266792012203691, -0.05899349063798204, -0.2950401048847162, 0.4175521914817746, 0.343597273971997, 0.5036571289106138, -0.4867831071523913, -0.22125447430664105, -0.22043790133724928], [-0.38052893508543584, 0.08634492629169328, 0.02477701129493158, 0.04079611286485518, -0.4704661268443083, -0.13895586420496636, 0.33288006104646484, -0.2688061081159508, -0.36972363440105516, -0.3300452668716225, -0.46735043770483087, -0.14869425698547628, 0.0019879089504249163, 0.4392727794971798, 0.07687780116519471, 0.40466179471995994, 0.16406849462081186, -0.27794977480936284, -0.08778647072757732, -0.03293777326406666, 0.18786227700825045, 0.193605725081747, -0.3207684190630637, -0.4228595763920091, -0.19154454447379876, -0.40530272738582523, -0.5184963083683881, 0.20573605889815116, 0.09357637803986486, -0.048941073555478776], [0.22719523053836926, -0.4075998202948594, 0.4113782972277958, 0.09476458313767482, 0.04049227369850412, 0.22011234882193942, -0.01122149644852843, -0.42159510829780106, -0.39578861874153276, -0.2757517517981674, 0.33289723426451945, -0.28221671580370955, -0.28132879986348514, -0.1229856240310425, 0.45562275866466967, -0.35200487974400496, -0.10280677899593407, 0.3388813823012284, 0.26106835183075394, 0.22495926550158682, 0.3477376742801562, 0.3420862309539927, 0.4086031422870489, 0.4175647469365783, -0.43522270079124625, 0.47337626706108626, 0.00028004230096645785, -0.5041044449848936, 0.3212816276024972, 0.497002515872269], [0.37616712369807537, 0.2236297379806813, -0.22425609418101372, -0.3693387274946111, 0.08170307894385515, -0.16604644833116727, 0.1953075155559142, -0.16713381989920584, -0.10271619829369111, 0.1171048111831257, 0.326220608129551, -0.2839214890976546, 0.40559460565097755, 0.31476356639610686, 0.04866186878588796, 0.25984972420867725, 0.28176059539452636, -0.21813452851077675, -0.5395564771291638, -0.23388115859671835, -0.3064349899256233, 0.46161103792123315, 0.11462495434330537, 0.11739298695586942, -0.09024387421806257, -0.41336276696588775, 0.15890133230564904, -0.4658799183587689, -0.4791055902600618, -0.16936670320144148], [0.4751915738389359, -0.3362430588115089, -0.1800516404079087, -0.033258332766622364, -0.2734766321251701, -0.29976222294559124, -0.21779103879443673, 0.11937523457583124, -0.37191095562732146, -0.13506576566917797, -0.3871648143623082, -0.03627822328776682, 0.05726929684840635, -0.07314934533040815, 0.10402426691410932, -0.05231037326776671, -0.16973456911108267, 0.2623129993624052, -0.41264444986945303, -0.34046864890772416, 0.2961791125816447, -0.24144329484519336, -0.2990925356091404, -0.28115754474644006, 0.2341550878684276, -0.5136375773745415, -0.021189985261860757, -0.3238604995098528, -0.3672887829620272, 0.0574901837680416], [0.45547100997083967, -0.38763396003856676, 0.033139921948243924, 0.39325202252851965, 0.06519348901300633, 0.46344454169295746, 0.4042162997933631, 0.16949984269199428, 0.16825080313316332, 0.25877806353047705, 0.2291840630918767, -0.29847704926280544, 0.38440788155157285, -0.2782672036337522, -0.4634169401583397, 0.436944662259537, -0.030448149652671577, -0.2953291031136538, -0.4286920343809629, 0.1986671024723988, 0.05178921119010488, 0.12843963067418282, 0.029968549873221798, 0.4525250995189324, -0.03360047152830953, -0.14959518748042733, 0.39811702850546865, 0.31392906766850065, -0.28725529921369536, -0.08180234054387747], [0.46750729208686326, -0.35284429547061275, 0.07461603876327763, 0.4064625276124782, -0.47095722215284513, 0.2690154903608238, 0.40019921896159927, -0.23453731679517018, 0.1407832995139263, 0.3600333188714428, -0.17917105763321414, 0.40272766818648925, -0.058293112512638585, 0.4110575130008517, 0.046659911271427976, 0.1306685668888703, 0.24803819112099168, 0.21819302643678967, -0.3893136703737882, -0.2515606222113407, 0.02842680154498551, 0.10746608904552428, -0.4015557192715601, 0.15787107762829258, 0.5000880013489372, 0.2088549674110697, -0.246431620186541, -0.22670737110247233, 0.09690873397677889, -0.5317018442223644], [-0.15152388643344142, -0.3877446858284256, -0.3252117945996172, 0.3255720706377566, -0.1364977961476536, -0.06524343602671662, 0.37300956516260975, -0.023834555372771966, 0.4424789946827134, 0.21319681472015536, 0.3159748828344037, -0.028845209652218345, -0.27073321338444917, -0.08828909419754634, -0.4553427212014709, 0.1874380362166733, 0.04473125795139857, 0.39585220108130814, -0.27663514883643, 0.4869130252236313, -0.28081502271182884, -0.23497853497522062, -0.33945836649316036, 0.4053040939149357, 0.27284344211904954, -0.3305469585133212, 0.09069996582238543, 0.3721566344466271, 0.274987775286632, 0.21835859852272044], [0.4907924509785033, 0.03943310581038705, -0.3643488777148172, -0.3166997246121949, -0.12065927238796345, -0.13686003824103582, 0.33483542433718183, -0.35007070290728903, 0.2882863658803252, -0.010834060340763858, -0.37812131614380023, 0.41520373125174675, -0.37533185783768197, 0.2549403680938863, -0.32505694027947535, 0.3564449079207503, 0.49863941859579664, 0.41758013723176507, 0.14465192589209463, -0.11559644543527144, -0.4080229336819423, 0.39026992683703815, 0.16378734347233728, 0.45219591368367307, 0.48710600921807923, -0.41819775653528674, 0.2129461286576916, -0.09720791735307527, -0.37644801424605795, -0.33850021601699387], [0.22432272354632507, 0.2547150859680876, -0.12075918568874487, 0.36752939837498144, -0.11897180162371329, 0.3571269668762327, 0.009631543667601787, 0.15458946991317646, -0.3485455987551074, 0.36613566700233224, 0.19524628716727752, 0.3393337262629807, 0.10340493841678541, 0.2836830783428615, -0.02903811138698912, 0.4299655303665924, 0.44901618137747346, -0.22458109419290545, -0.2144167134155221, 0.2843472785269373, -0.2087588328620249, 0.02358526809086545, 0.0806435514106452, -0.0620793946869892, 0.11095393020189456, -0.25466275906356706, 0.42912630897412984, 0.13396901250771748, -0.5749373884799988, -0.38688457491439626], [0.033118773685541246, 0.179101863674275, 0.4651500785242331, 0.390651215535115, 0.23071145308417362, -0.20861006304910865, -0.21850321545140095, 0.3521926829140787, -0.24887012413196888, -0.16010741263395625, -0.0996649242898718, 0.3234279257101524, -0.2926679808005161, -0.3415493592489073, 0.30030458007706323, -0.4279203799974588, -0.10196771459818764, -0.2648894996487885, -0.017917946483642908, -0.352656578346136, 0.17968341252926584, -0.011659701260141242, -0.293862148188795, 0.21573753025499895, 0.4429936718125345, -0.46191382473609993, 0.4317082595596496, 0.0497637046427727, -0.016228536259179357, -0.3165194996067561], [-0.1444951640057139, -0.39829268032947646, 0.4232733427954529, 0.41323879322346874, 0.3680458947601124, -0.42660182488179826, 0.09761230300242833, 0.22045623631662462, 0.28253810774191435, 0.3287458854094127, -0.04748405482675363, -0.26903216304151145, 0.19610565824240522, -0.25425956470387157, -0.2027751795790575, -0.31556665641878023, 0.35819303164619154, -0.30286904861650277, 0.05651452565299834, -0.4567160738078646, -0.04930696904636632, -0.3170864568457321, 0.07832457527056938, -0.012181436658774462, 0.04742604806119463, -0.5110506915920561, 0.4929961085385059, 0.25244582075179256, -0.3442551102507838, -0.26198601481843103], [0.34892462930947676, 0.1146781875178931, 0.07658965459272406, -0.0046874482495981844, 0.3346912699906901, -0.4978836086674684, -0.039689142064637896, 0.22688840522992268, -0.18117888006120192, 0.2354946727552829, -0.10972887698392418, -0.12799610570506864, -0.06572971941115546, 0.38191583592170336, 0.3365211659591567, -0.30888696385562714, 0.23779551414450992, 0.34184341614752406, -0.2533950379213935, 0.4283826559393689, -0.3759679206222832, -0.0899967963548648, -0.17858191479282395, 0.0240171069047106, -0.04686025659045355, 0.42497925392084696, 0.01900315360773056, -0.07839853946848874, 0.0007623111290949932, 0.048602086305313166], [-0.44422258702172335, 0.40734306981027046, -0.25603942331305457, 0.0329662886183717, 0.29542633059453427, 0.05780491166956408, -0.4826562633832153, -0.38676474658074483, -0.28597864440604376, 0.4515285630962006, 0.013197245394595734, 0.4147385253099024, -0.16011668777567767, -0.09290800890976758, -0.1965402366275399, -0.25139191034641, 0.2612312378639645, 0.5131882596375413, 0.03818053067032493, -0.1618692447800656, -0.43875702641230596, -0.010179394385703753, -0.13404282684859864, 0.03323524861032476, -0.19163781085504283, -0.11532974778329776, 0.42913458108734726, 0.47981720282237306, -0.26762668295396436, -0.05259992273022386], [0.3270893578515498, 0.32669176614441087, 0.04035093286994945, -0.023515433410982223, -0.3397837714613807, 0.21785456593167743, -0.13717192501680192, 0.10614744149756464, -0.2707356642055273, -0.29591766686683607, -0.25287450287164315, 0.052745693790901854, 0.034390341144711345, -0.5111924513278477, -0.3712437569017237, 0.05365437719455553, 0.25996024091405734, 0.24945894272653796, -0.04998170208023844, -0.4910855766423944, -0.37198183907982957, 0.03073262686410563, 0.3897054196324494, 0.29164385031371154, -0.485136433604893, -0.308448638466919, 0.32158862392431087, 0.2896912341215765, 0.4218382925674002, 0.26158662916180275], [0.08876283589850081, -0.48661986407326274, 0.36742352393315053, -0.3909713726420306, 0.22755683298143572, -0.12097254636758709, 0.07972532836625137, -0.018257327913813272, 0.07313594244846251, -0.026245406029615004, 0.22832177879888815, 0.4039308495140304, -0.012259406585867607, -0.44969191284984555, -0.009129211161336635, 0.0365448167974814, -0.0708467396476255, -0.08360635266865454, -0.46460795619608763, 0.3511859704356286, -0.16784891238082592, -0.26055789100878685, 0.34657119345750026, 0.26912652766462547, 0.3261978422027149, 0.041418606059534006, 0.25880343400105627, 0.4240611295044732, 0.06624935439600033, 0.15638476906419294], [-0.43292926854471403, -0.45660091299829714, 0.24229887596177982, 0.12620713213786947, 0.3155548459150184, -0.08013048372032373, 0.4614215347987292, -0.21066116474289476, -0.008392722998975083, 0.04109250044722663, -0.32017228425385935, 0.052368310741856494, 0.2069437400256183, -0.2631591026179903, 0.43994846544868216, -0.40240532171250726, 0.00610948441768245, 0.4707751640060129, -0.2975892343557097, 0.06839209996896756, 0.3563257821095926, 0.05989990705370088, -0.29993667504398347, 0.44813192923644035, 0.4129992401649626, -0.37549114551593654, -0.2790414663779388, 0.41840008807040885, 0.06857224011193061, -0.23084976633796855], [-0.2425622900047465, 0.14811446472587597, 0.4012008182369319, -0.036787546457721754, -0.12922392286626339, -0.19785270712697556, -0.35015861021734385, 0.09470721340655897, 0.135535653060193, 0.15347744153226228, 0.06687617252661038, 0.19651185419383632, -0.18173326060302342, 0.40206572490800896, -0.4853866723155965, 0.26152702169660513, 0.46605540519073896, 0.17655245789348561, -0.02789571526136181, 0.08027827743094773, -0.17246911132201703, 0.09820491708171386, -0.20246867180054184, -0.12316761199221804, -0.37003261087454387, 0.428021781325559, -0.07124040771540852, 0.2928254141036539, 0.1851134668242339, -0.05829169194264405]], "hidden_bias": [[0.48469253455557254, -0.35377992628366856, 0.4396031398822203, 0.25799069210549236, 0.509998988155667, 0.3355901748408967, -0.399199066009775, 0.2766545348296986, -0.10885842489026004, 0.1956287336866276, 0.44385493880941973, 0.46926472953844056, -0.3424949361168936, 0.3083873982921469, 0.3591425807401949, -0.45962896351047033, -0.2633583244758887, -0.47372589366225565, 0.31926549555380224, 0.4818321286781234, 0.18021137808839013, 0.09754439193032212, -0.12320143141886758, -0.13008518895819168, -0.031182818647491912, 0.1162655162116562, -0.028835180959271928, 0.38820818306842086, 0.4177525557485385, 0.22836444492667263]], "output_weights": [[-0.06552830156619371], [0.045038370762688074], [0.3987871041210019], [0.11675747429096794], [0.3961412589543038], [0.30344284241425035], [0.3932483513304568], [-0.6078467656273996], [-0.06488134684050867], [-0.3861215995337865], [-0.1029068918803864], [0.36668488585632497], [-0.09229855643799353], [0.6573292073591271], [0.1027617808660105], [-0.4716579374554938], [-0.8483815867507647], [-0.553914627606775], [0.5545120923607739], [-0.03628800963253032], [0.4276130182606375], [0.1972042575986896], [0.3566838074128217], [-0.09051096530094034], [-0.175451628265293], [0.4543167608525316], [-0.7978119075572312], [0.08447469850760582], [0.7545140375235102], [0.1078360535907425]], "output_bias": [[-0.2911700173734555]]}